digraph Tree {
node [shape=box, style="rounded", color="black", fontname=helvetica] ;
edge [fontname=helvetica] ;
0 [label="Age <= 29.5\ngini = 0.365\nsamples = 24420\nvalue = [18555, 5865]\nclass = Target[<=50K]"] ;
1 [label="Age <= 25.5\ngini = 0.1\nsamples = 7314\nvalue = [6927, 387]\nclass = Target[<=50K]"] ;
0 -> 1 [labeldistance=2.5, labelangle=45, headlabel="True"] ;
2 [label="C(Relationship)[T.Wife] <= 0.5\ngini = 0.035\nsamples = 4823\nvalue = [4738, 85]\nclass = Target[<=50K]"] ;
1 -> 2 ;
3 [label="Age <= 23.5\ngini = 0.029\nsamples = 4732\nvalue = [4662, 70]\nclass = Target[<=50K]"] ;
2 -> 3 ;
4 [label="gini = 0.011\nsamples = 3523\nvalue = [3504, 19]\nclass = Target[<=50K]"] ;
3 -> 4 ;
5 [label="gini = 0.081\nsamples = 1209\nvalue = [1158, 51]\nclass = Target[<=50K]"] ;
3 -> 5 ;
6 [label="C(Occupation)[T.Prof-specialty] <= 0.5\ngini = 0.275\nsamples = 91\nvalue = [76, 15]\nclass = Target[<=50K]"] ;
2 -> 6 ;
7 [label="gini = 0.198\nsamples = 81\nvalue = [72, 9]\nclass = Target[<=50K]"] ;
6 -> 7 ;
8 [label="gini = 0.48\nsamples = 10\nvalue = [4, 6]\nclass = Target[>50K]"] ;
6 -> 8 ;
9 [label="C(Relationship)[T.Wife] <= 0.5\ngini = 0.213\nsamples = 2491\nvalue = [2189, 302]\nclass = Target[<=50K]"] ;
1 -> 9 ;
10 [label="C(Sex)[T.Male] <= 0.5\ngini = 0.186\nsamples = 2345\nvalue = [2101, 244]\nclass = Target[<=50K]"] ;
9 -> 10 ;
11 [label="gini = 0.05\nsamples = 740\nvalue = [721, 19]\nclass = Target[<=50K]"] ;
10 -> 11 ;
12 [label="gini = 0.241\nsamples = 1605\nvalue = [1380, 225]\nclass = Target[<=50K]"] ;
10 -> 12 ;
13 [label="C(Education)[T.Bachelors] <= 0.5\ngini = 0.479\nsamples = 146\nvalue = [88, 58]\nclass = Target[<=50K]"] ;
9 -> 13 ;
14 [label="gini = 0.405\nsamples = 110\nvalue = [79, 31]\nclass = Target[<=50K]"] ;
13 -> 14 ;
15 [label="gini = 0.375\nsamples = 36\nvalue = [9, 27]\nclass = Target[>50K]"] ;
13 -> 15 ;
16 [label="C(Sex)[T.Male] <= 0.5\ngini = 0.435\nsamples = 17106\nvalue = [11628, 5478]\nclass = Target[<=50K]"] ;
0 -> 16 [labeldistance=2.5, labelangle=-45, headlabel="False"] ;
17 [label="C(Relationship)[T.Wife] <= 0.5\ngini = 0.265\nsamples = 5037\nvalue = [4245, 792]\nclass = Target[<=50K]"] ;
16 -> 17 ;
18 [label="C(Education)[T.Doctorate] <= 0.5\ngini = 0.134\nsamples = 4107\nvalue = [3811, 296]\nclass = Target[<=50K]"] ;
17 -> 18 ;
19 [label="gini = 0.126\nsamples = 4064\nvalue = [3790, 274]\nclass = Target[<=50K]"] ;
18 -> 19 ;
20 [label="gini = 0.5\nsamples = 43\nvalue = [21, 22]\nclass = Target[>50K]"] ;
18 -> 20 ;
21 [label="C(Occupation)[T.Other-service] <= 0.5\ngini = 0.498\nsamples = 930\nvalue = [434, 496]\nclass = Target[>50K]"] ;
17 -> 21 ;
22 [label="gini = 0.488\nsamples = 821\nvalue = [346, 475]\nclass = Target[>50K]"] ;
21 -> 22 ;
23 [label="gini = 0.311\nsamples = 109\nvalue = [88, 21]\nclass = Target[<=50K]"] ;
21 -> 23 ;
24 [label="C(Occupation)[T.Exec-managerial] <= 0.5\ngini = 0.475\nsamples = 12069\nvalue = [7383, 4686]\nclass = Target[<=50K]"] ;
16 -> 24 ;
25 [label="C(Occupation)[T.Prof-specialty] <= 0.5\ngini = 0.45\nsamples = 10144\nvalue = [6676, 3468]\nclass = Target[<=50K]"] ;
24 -> 25 ;
26 [label="gini = 0.408\nsamples = 8499\nvalue = [6068, 2431]\nclass = Target[<=50K]"] ;
25 -> 26 ;
27 [label="gini = 0.466\nsamples = 1645\nvalue = [608, 1037]\nclass = Target[>50K]"] ;
25 -> 27 ;
28 [label="C(Relationship)[T.Not-in-family] <= 0.5\ngini = 0.465\nsamples = 1925\nvalue = [707, 1218]\nclass = Target[>50K]"] ;
24 -> 28 ;
29 [label="gini = 0.43\nsamples = 1631\nvalue = [511, 1120]\nclass = Target[>50K]"] ;
28 -> 29 ;
30 [label="gini = 0.444\nsamples = 294\nvalue = [196, 98]\nclass = Target[<=50K]"] ;
28 -> 30 ;
}